[[ 0.01242316  0.02412591  0.01863069 ...  0.00995598 -0.00258356
   0.00302307]
 [ 0.00392478 -0.00581237 -0.00998335 ...  0.01563881 -0.00405298
   0.00309941]
 [-0.00179336  0.01513929  0.00444004 ... -0.00027739  0.02616414
  -0.00752325]
 ...
 [ 0.00757593  0.01187867  0.00688888 ...  0.01453231 -0.01040141
   0.00566488]
 [ 0.01737446 -0.00351826 -0.00151104 ... -0.0121924  -0.01510976
  -0.00454983]
 [ 0.00825762 -0.01662833 -0.00013304 ...  0.00553221 -0.00212395
   0.00357268]]
------------
[[ 0.92896346]
 [ 1.25683927]
 [ 0.94598583]
 [ 1.53230976]
 [-0.56935231]
 [ 0.52961848]
 [-0.12679699]
 [-1.40773356]
 [ 1.83793603]
 [ 0.16135347]
 [ 0.04928887]
 [-0.71478043]
 [-0.28819954]
 [ 1.30208574]
 [ 0.21692322]
 [-0.78928983]
 [ 0.36295074]
 [ 0.27562023]
 [-0.07614627]
 [ 1.37943804]]
------------
[[-0.68065784 -0.14153883 -0.68019808 -0.22231272  0.93880496 -0.58702881
   0.66576761  0.36062273 -0.14323336 -0.765406   -0.17090978  1.02502688
   0.7217679  -0.25034286 -0.36109761  0.93651181 -1.15784645 -1.08021799
   0.77966897 -1.15144167]]
------------
[[0.39420016]]