0.23455435 -0.50525067  0.06350407 -0.43756044 -0.27205725
-0.13048255 -1.56347738 -2.69320702  0.30200126 -0.55716647
0.62408012 -0.67719343 -0.64570513 -1.94563952  0.40454814
-1.22588499 -0.14507351  2.13032656 -0.86254468 -0.79958309
-2.13279815 -0.78923102 -1.97463604 -0.78314735 -0.66056386
0.71435162 -1.56280327  0.99372751  1.65870056  0.70165233
-0.47646667 -0.06978398 -0.12286874  1.30105242  1.45749434
0.17742515 -0.57025967 -1.48634528  0.05476126 -0.97464525
-0.11749861  0.06829517 -0.02028026  0.3775841   0.70630072
0.42206901 -0.31545943  2.10145173  0.52152787 -0.41551386 0.23455435 -0.50525067  0.06350407 -0.43756044 -0.27205725
-0.13048255 -1.56347738 -2.69320702  0.30200126 -0.55716647
0.62408012 -0.67719343 -0.64570513 -1.94563952  0.40454814
-1.22588499 -0.14507351  2.13032656 -0.86254468 -0.79958309
-2.13279815 -0.78923102 -1.97463604 -0.78314735 -0.66056386
0.71435162 -1.56280327  0.99372751  1.65870056  0.70165233
-0.47646667 -0.06978398 -0.12286874  1.30105242  1.45749434
0.17742515 -0.57025967 -1.48634528  0.05476126 -0.97464525
-0.11749861  0.06829517 -0.02028026  0.3775841   0.70630072
0.42206901 -0.31545943  2.10145173  0.52152787 -0.41551386
------------
0.23455435 -0.50525067  0.06350407 -0.43756044 -0.27205725
-0.13048255 -1.56347738 -2.69320702  0.30200126 -0.55716647
0.62408012 -0.67719343 -0.64570513 -1.94563952  0.40454814
-1.22588499 -0.14507351  2.13032656 -0.86254468 -0.79958309
-2.13279815 -0.78923102 -1.97463604 -0.78314735 -0.66056386
0.71435162 -1.56280327  0.99372751  1.65870056  0.70165233
-0.47646667 -0.06978398 -0.12286874  1.30105242  1.45749434
0.17742515 -0.57025967 -1.48634528  0.05476126 -0.97464525
-0.11749861  0.06829517 -0.02028026  0.3775841   0.70630072
0.42206901 -0.31545943  2.10145173  0.52152787 -0.41551386